digraph Tree {
node [shape=box, style="filled, rounded", color="black", fontname="helvetica"] ;
edge [fontname="helvetica"] ;
0 [label="x[3] <= -0.26\nsquared_error = 12527.615\nsamples = 80\nvalue = -2.109", fillcolor="#f2c29f"] ;
1 [label="x[3] <= -1.268\nsquared_error = 6520.436\nsamples = 22\nvalue = -121.612", fillcolor="#f8dbc6"] ;
0 -> 1 [labeldistance=2.5, labelangle=45, headlabel="True"] ;
2 [label="x[1] <= -0.918\nsquared_error = 1078.446\nsamples = 5\nvalue = -231.272", fillcolor="#fcf2eb"] ;
1 -> 2 ;
3 [label="squared_error = 0.0\nsamples = 1\nvalue = -293.25", fillcolor="#ffffff"] ;
2 -> 3 ;
4 [label="x[2] <= -0.907\nsquared_error = 147.696\nsamples = 4\nvalue = -215.778", fillcolor="#fcefe5"] ;
2 -> 4 ;
5 [label="x[3] <= -1.446\nsquared_error = 30.263\nsamples = 2\nvalue = -205.222", fillcolor="#fbede2"] ;
4 -> 5 ;
6 [label="squared_error = 0.0\nsamples = 1\nvalue = -199.721", fillcolor="#fbebe0"] ;
5 -> 6 ;
7 [label="squared_error = 0.0\nsamples = 1\nvalue = -210.723", fillcolor="#fbeee4"] ;
5 -> 7 ;
8 [label="x[2] <= -0.207\nsquared_error = 42.262\nsamples = 2\nvalue = -226.334", fillcolor="#fcf1e9"] ;
4 -> 8 ;
9 [label="squared_error = 0.0\nsamples = 1\nvalue = -232.835", fillcolor="#fcf2eb"] ;
8 -> 9 ;
10 [label="squared_error = -0.0\nsamples = 1\nvalue = -219.833", fillcolor="#fcf0e7"] ;
8 -> 10 ;
11 [label="x[2] <= -1.286\nsquared_error = 3543.869\nsamples = 17\nvalue = -89.359", fillcolor="#f6d4bc"] ;
1 -> 11 ;
12 [label="x[1] <= 0.075\nsquared_error = 2701.53\nsamples = 2\nvalue = -212.022", fillcolor="#fbeee4"] ;
11 -> 12 ;
13 [label="squared_error = 0.0\nsamples = 1\nvalue = -160.046", fillcolor="#f9e3d3"] ;
12 -> 13 ;
14 [label="squared_error = 0.0\nsamples = 1\nvalue = -263.998", fillcolor="#fef9f5"] ;
12 -> 14 ;
15 [label="x[1] <= -0.432\nsquared_error = 1382.532\nsamples = 15\nvalue = -73.004", fillcolor="#f5d1b6"] ;
11 -> 15 ;
16 [label="x[2] <= 0.189\nsquared_error = 852.462\nsamples = 7\nvalue = -104.284", fillcolor="#f7d7c1"] ;
15 -> 16 ;
17 [label="x[3] <= -0.75\nsquared_error = 323.318\nsamples = 5\nvalue = -119.195", fillcolor="#f7dbc6"] ;
16 -> 17 ;
18 [label="squared_error = 0.0\nsamples = 1\nvalue = -149.166", fillcolor="#f9e1d0"] ;
17 -> 18 ;
19 [label="x[0] <= 0.956\nsquared_error = 123.457\nsamples = 4\nvalue = -111.703", fillcolor="#f7d9c3"] ;
17 -> 19 ;
20 [label="x[2] <= -0.521\nsquared_error = 17.36\nsamples = 3\nvalue = -105.636", fillcolor="#f7d8c1"] ;
19 -> 20 ;
21 [label="squared_error = 0.0\nsamples = 1\nvalue = -99.744", fillcolor="#f7d6bf"] ;
20 -> 21 ;
22 [label="x[0] <= -0.052\nsquared_error = 0.008\nsamples = 2\nvalue = -108.581", fillcolor="#f7d8c2"] ;
20 -> 22 ;
23 [label="squared_error = 0.0\nsamples = 1\nvalue = -108.494", fillcolor="#f7d8c2"] ;
22 -> 23 ;
24 [label="squared_error = -0.0\nsamples = 1\nvalue = -108.669", fillcolor="#f7d8c2"] ;
22 -> 24 ;
25 [label="squared_error = 0.0\nsamples = 1\nvalue = -129.905", fillcolor="#f8ddc9"] ;
19 -> 25 ;
26 [label="x[0] <= 0.163\nsquared_error = 229.769\nsamples = 2\nvalue = -67.006", fillcolor="#f5d0b4"] ;
16 -> 26 ;
27 [label="squared_error = 0.0\nsamples = 1\nvalue = -82.164", fillcolor="#f6d3b9"] ;
26 -> 27 ;
28 [label="squared_error = -0.0\nsamples = 1\nvalue = -51.848", fillcolor="#f5ccaf"] ;
26 -> 28 ;
29 [label="x[1] <= 0.346\nsquared_error = 241.061\nsamples = 8\nvalue = -45.634", fillcolor="#f4cbad"] ;
15 -> 29 ;
30 [label="x[2] <= 0.132\nsquared_error = 1.331\nsamples = 3\nvalue = -63.175", fillcolor="#f5cfb3"] ;
29 -> 30 ;
31 [label="x[0] <= -0.285\nsquared_error = 0.412\nsamples = 2\nvalue = -62.448", fillcolor="#f5cfb3"] ;
30 -> 31 ;
32 [label="squared_error = 0.0\nsamples = 1\nvalue = -61.806", fillcolor="#f5ceb3"] ;
31 -> 32 ;
33 [label="squared_error = 0.0\nsamples = 1\nvalue = -63.091", fillcolor="#f5cfb3"] ;
31 -> 33 ;
34 [label="squared_error = 0.0\nsamples = 1\nvalue = -64.628", fillcolor="#f5cfb4"] ;
30 -> 34 ;
35 [label="x[1] <= 1.623\nsquared_error = 89.51\nsamples = 5\nvalue = -35.109", fillcolor="#f4c9aa"] ;
29 -> 35 ;
36 [label="x[3] <= -0.612\nsquared_error = 29.797\nsamples = 4\nvalue = -31.057", fillcolor="#f4c8a9"] ;
35 -> 36 ;
37 [label="x[2] <= 0.806\nsquared_error = 0.079\nsamples = 2\nvalue = -36.499", fillcolor="#f4c9aa"] ;
36 -> 37 ;
38 [label="squared_error = 0.0\nsamples = 1\nvalue = -36.218", fillcolor="#f4c9aa"] ;
37 -> 38 ;
39 [label="squared_error = 0.0\nsamples = 1\nvalue = -36.78", fillcolor="#f4c9ab"] ;
37 -> 39 ;
40 [label="x[2] <= -0.64\nsquared_error = 0.284\nsamples = 2\nvalue = -25.615", fillcolor="#f3c7a7"] ;
36 -> 40 ;
41 [label="squared_error = 0.0\nsamples = 1\nvalue = -25.082", fillcolor="#f3c7a7"] ;
40 -> 41 ;
42 [label="squared_error = 0.0\nsamples = 1\nvalue = -26.148", fillcolor="#f3c7a7"] ;
40 -> 42 ;
43 [label="squared_error = 0.0\nsamples = 1\nvalue = -51.316", fillcolor="#f5ccaf"] ;
35 -> 43 ;
44 [label="x[1] <= -0.265\nsquared_error = 7334.59\nsamples = 58\nvalue = 43.22", fillcolor="#f0b890"] ;
0 -> 44 [labeldistance=2.5, labelangle=-45, headlabel="False"] ;
45 [label="x[2] <= -0.259\nsquared_error = 5273.326\nsamples = 26\nvalue = -11.822", fillcolor="#f3c4a2"] ;
44 -> 45 ;
46 [label="x[3] <= 0.615\nsquared_error = 1721.669\nsamples = 15\nvalue = -59.613", fillcolor="#f5ceb2"] ;
45 -> 46 ;
47 [label="x[1] <= -0.957\nsquared_error = 1446.741\nsamples = 10\nvalue = -78.37", fillcolor="#f6d2b8"] ;
46 -> 47 ;
48 [label="x[2] <= -2.121\nsquared_error = 312.045\nsamples = 3\nvalue = -126.222", fillcolor="#f8dcc8"] ;
47 -> 48 ;
49 [label="squared_error = 0.0\nsamples = 1\nvalue = -151.122", fillcolor="#f9e1d0"] ;
48 -> 49 ;
50 [label="x[2] <= -1.344\nsquared_error = 3.046\nsamples = 2\nvalue = -113.771", fillcolor="#f7d9c4"] ;
48 -> 50 ;
51 [label="squared_error = 0.0\nsamples = 1\nvalue = -115.517", fillcolor="#f7dac4"] ;
50 -> 51 ;
52 [label="squared_error = 0.0\nsamples = 1\nvalue = -112.026", fillcolor="#f7d9c3"] ;
50 -> 52 ;
53 [label="x[1] <= -0.374\nsquared_error = 531.149\nsamples = 7\nvalue = -57.863", fillcolor="#f5ceb1"] ;
47 -> 53 ;
54 [label="x[1] <= -0.543\nsquared_error = 129.284\nsamples = 5\nvalue = -71.022", fillcolor="#f5d0b6"] ;
53 -> 54 ;
55 [label="x[2] <= -0.348\nsquared_error = 44.291\nsamples = 3\nvalue = -62.946", fillcolor="#f5cfb3"] ;
54 -> 55 ;
56 [label="x[0] <= -0.965\nsquared_error = 3.069\nsamples = 2\nvalue = -67.542", fillcolor="#f5d0b5"] ;
55 -> 56 ;
57 [label="squared_error = 0.0\nsamples = 1\nvalue = -65.79", fillcolor="#f5cfb4"] ;
56 -> 57 ;
58 [label="squared_error = 0.0\nsamples = 1\nvalue = -69.294", fillcolor="#f5d0b5"] ;
56 -> 58 ;
59 [label="squared_error = -0.0\nsamples = 1\nvalue = -53.754", fillcolor="#f5cdb0"] ;
55 -> 59 ;
60 [label="x[0] <= -0.506\nsquared_error = 12.191\nsamples = 2\nvalue = -83.136", fillcolor="#f6d3ba"] ;
54 -> 60 ;
61 [label="squared_error = 0.0\nsamples = 1\nvalue = -86.628", fillcolor="#f6d4bb"] ;
60 -> 61 ;
62 [label="squared_error = 0.0\nsamples = 1\nvalue = -79.644", fillcolor="#f6d2b9"] ;
60 -> 62 ;
63 [label="x[2] <= -0.414\nsquared_error = 20.57\nsamples = 2\nvalue = -24.964", fillcolor="#f3c7a7"] ;
53 -> 63 ;
64 [label="squared_error = 0.0\nsamples = 1\nvalue = -20.429", fillcolor="#f3c6a5"] ;
63 -> 64 ;
65 [label="squared_error = -0.0\nsamples = 1\nvalue = -29.499", fillcolor="#f4c8a8"] ;
63 -> 65 ;
66 [label="x[1] <= -0.564\nsquared_error = 160.41\nsamples = 5\nvalue = -22.097", fillcolor="#f3c6a6"] ;
46 -> 66 ;
67 [label="x[0] <= 1.37\nsquared_error = 8.495\nsamples = 3\nvalue = -12.24", fillcolor="#f3c4a2"] ;
66 -> 67 ;
68 [label="x[1] <= -1.036\nsquared_error = 0.169\nsamples = 2\nvalue = -14.287", fillcolor="#f3c5a3"] ;
67 -> 68 ;
69 [label="squared_error = 0.0\nsamples = 1\nvalue = -13.875", fillcolor="#f3c4a3"] ;
68 -> 69 ;
70 [label="squared_error = 0.0\nsamples = 1\nvalue = -14.699", fillcolor="#f3c5a3"] ;
68 -> 70 ;
71 [label="squared_error = -0.0\nsamples = 1\nvalue = -8.145", fillcolor="#f3c3a1"] ;
67 -> 71 ;
72 [label="x[3] <= 0.699\nsquared_error = 23.908\nsamples = 2\nvalue = -36.883", fillcolor="#f4c9ab"] ;
66 -> 72 ;
73 [label="squared_error = 0.0\nsamples = 1\nvalue = -31.993", fillcolor="#f4c8a9"] ;
72 -> 73 ;
74 [label="squared_error = -0.0\nsamples = 1\nvalue = -41.773", fillcolor="#f4caac"] ;
72 -> 74 ;
75 [label="x[3] <= 0.285\nsquared_error = 2755.061\nsamples = 11\nvalue = 53.347", fillcolor="#f0b68d"] ;
45 -> 75 ;
76 [label="x[2] <= 0.737\nsquared_error = 1096.983\nsamples = 4\nvalue = -1.353", fillcolor="#f2c29f"] ;
75 -> 76 ;
77 [label="x[1] <= -1.311\nsquared_error = 9.941\nsamples = 3\nvalue = -20.41", fillcolor="#f3c6a5"] ;
76 -> 77 ;
78 [label="squared_error = 0.0\nsamples = 1\nvalue = -16.546", fillcolor="#f3c5a4"] ;
77 -> 78 ;
79 [label="x[0] <= -0.041\nsquared_error = 3.713\nsamples = 2\nvalue = -22.342", fillcolor="#f3c6a6"] ;
77 -> 79 ;
80 [label="squared_error = 0.0\nsamples = 1\nvalue = -24.269", fillcolor="#f3c7a6"] ;
79 -> 80 ;
81 [label="squared_error = 0.0\nsamples = 1\nvalue = -20.415", fillcolor="#f3c6a5"] ;
79 -> 81 ;
82 [label="squared_error = 0.0\nsamples = 1\nvalue = 55.818", fillcolor="#f0b68c"] ;
76 -> 82 ;
83 [label="x[2] <= -0.171\nsquared_error = 1015.771\nsamples = 7\nvalue = 84.604", fillcolor="#efb083"] ;
75 -> 83 ;
84 [label="squared_error = 0.0\nsamples = 1\nvalue = 22.912", fillcolor="#f1bd97"] ;
83 -> 84 ;
85 [label="x[3] <= 0.686\nsquared_error = 445.027\nsamples = 6\nvalue = 94.886", fillcolor="#eeae7f"] ;
83 -> 85 ;
86 [label="squared_error = 0.0\nsamples = 1\nvalue = 48.236", fillcolor="#f0b78e"] ;
85 -> 86 ;
87 [label="x[1] <= -1.08\nsquared_error = 11.742\nsamples = 5\nvalue = 104.216", fillcolor="#eeac7c"] ;
85 -> 87 ;
88 [label="x[0] <= 0.034\nsquared_error = 1.336\nsamples = 2\nvalue = 108.092", fillcolor="#eeab7b"] ;
87 -> 88 ;
89 [label="squared_error = 0.0\nsamples = 1\nvalue = 109.248", fillcolor="#eeab7a"] ;
88 -> 89 ;
90 [label="squared_error = 0.0\nsamples = 1\nvalue = 106.936", fillcolor="#eeab7b"] ;
88 -> 90 ;
91 [label="x[2] <= 0.312\nsquared_error = 1.983\nsamples = 3\nvalue = 101.632", fillcolor="#eeac7d"] ;
87 -> 91 ;
92 [label="x[3] <= 1.425\nsquared_error = 0.587\nsamples = 2\nvalue = 102.524", fillcolor="#eeac7d"] ;
91 -> 92 ;
93 [label="squared_error = 0.0\nsamples = 1\nvalue = 101.758", fillcolor="#eeac7d"] ;
92 -> 93 ;
94 [label="squared_error = -0.0\nsamples = 1\nvalue = 103.29", fillcolor="#eeac7c"] ;
92 -> 94 ;
95 [label="squared_error = -0.0\nsamples = 1\nvalue = 99.847", fillcolor="#eead7d"] ;
91 -> 95 ;
96 [label="x[2] <= 1.283\nsquared_error = 4547.81\nsamples = 32\nvalue = 87.941", fillcolor="#efaf81"] ;
44 -> 96 ;
97 [label="x[0] <= -0.52\nsquared_error = 2235.472\nsamples = 29\nvalue = 72.896", fillcolor="#efb286"] ;
96 -> 97 ;
98 [label="x[3] <= 0.792\nsquared_error = 2170.4\nsamples = 11\nvalue = 42.287", fillcolor="#f0b990"] ;
97 -> 98 ;
99 [label="x[2] <= 0.162\nsquared_error = 652.173\nsamples = 7\nvalue = 11.129", fillcolor="#f2bf9b"] ;
98 -> 99 ;
100 [label="x[1] <= 0.98\nsquared_error = 141.246\nsamples = 4\nvalue = -6.865", fillcolor="#f3c3a1"] ;
99 -> 100 ;
101 [label="x[2] <= -0.896\nsquared_error = 19.072\nsamples = 3\nvalue = -0.36", fillcolor="#f2c29f"] ;
100 -> 101 ;
102 [label="squared_error = 0.0\nsamples = 1\nvalue = -6.408", fillcolor="#f3c3a1"] ;
101 -> 102 ;
103 [label="x[3] <= 0.454\nsquared_error = 1.166\nsamples = 2\nvalue = 2.665", fillcolor="#f2c19e"] ;
101 -> 103 ;
104 [label="squared_error = 0.0\nsamples = 1\nvalue = 1.585", fillcolor="#f2c19e"] ;
103 -> 104 ;
105 [label="squared_error = 0.0\nsamples = 1\nvalue = 3.745", fillcolor="#f2c19d"] ;
103 -> 105 ;
106 [label="squared_error = 0.0\nsamples = 1\nvalue = -26.379", fillcolor="#f3c7a7"] ;
100 -> 106 ;
107 [label="x[0] <= -1.714\nsquared_error = 326.14\nsamples = 3\nvalue = 35.12", fillcolor="#f1ba93"] ;
99 -> 107 ;
108 [label="squared_error = 0.0\nsamples = 1\nvalue = 9.974", fillcolor="#f2bf9b"] ;
107 -> 108 ;
109 [label="x[3] <= 0.382\nsquared_error = 14.949\nsamples = 2\nvalue = 47.693", fillcolor="#f0b88f"] ;
107 -> 109 ;
110 [label="squared_error = 0.0\nsamples = 1\nvalue = 43.827", fillcolor="#f0b890"] ;
109 -> 110 ;
111 [label="squared_error = 0.0\nsamples = 1\nvalue = 51.56", fillcolor="#f0b78d"] ;
109 -> 111 ;
112 [label="x[0] <= -1.413\nsquared_error = 155.085\nsamples = 4\nvalue = 96.815", fillcolor="#eead7e"] ;
98 -> 112 ;
113 [label="squared_error = 0.0\nsamples = 1\nvalue = 79.084", fillcolor="#efb184"] ;
112 -> 113 ;
114 [label="x[0] <= -0.778\nsquared_error = 67.054\nsamples = 3\nvalue = 102.725", fillcolor="#eeac7d"] ;
112 -> 114 ;
115 [label="x[2] <= -0.336\nsquared_error = 8.248\nsamples = 2\nvalue = 97.177", fillcolor="#eead7e"] ;
114 -> 115 ;
116 [label="squared_error = 0.0\nsamples = 1\nvalue = 94.305", fillcolor="#eeae7f"] ;
115 -> 116 ;
117 [label="squared_error = 0.0\nsamples = 1\nvalue = 100.049", fillcolor="#eead7d"] ;
115 -> 117 ;
118 [label="squared_error = -0.0\nsamples = 1\nvalue = 113.82", fillcolor="#edaa79"] ;
114 -> 118 ;
119 [label="x[2] <= 0.088\nsquared_error = 1352.815\nsamples = 18\nvalue = 91.601", fillcolor="#eeae80"] ;
97 -> 119 ;
120 [label="x[1] <= 0.777\nsquared_error = 1264.164\nsamples = 8\nvalue = 68.969", fillcolor="#efb388"] ;
119 -> 120 ;
121 [label="x[3] <= 0.808\nsquared_error = 561.706\nsamples = 6\nvalue = 52.214", fillcolor="#f0b78d"] ;
120 -> 121 ;
122 [label="x[1] <= 0.079\nsquared_error = 206.48\nsamples = 3\nvalue = 35.328", fillcolor="#f1ba93"] ;
121 -> 122 ;
123 [label="squared_error = 0.0\nsamples = 1\nvalue = 55.49", fillcolor="#f0b68c"] ;
122 -> 123 ;
124 [label="x[1] <= 0.495\nsquared_error = 4.837\nsamples = 2\nvalue = 25.247", fillcolor="#f1bc96"] ;
122 -> 124 ;
125 [label="squared_error = 0.0\nsamples = 1\nvalue = 23.047", fillcolor="#f1bd97"] ;
124 -> 125 ;
126 [label="squared_error = 0.0\nsamples = 1\nvalue = 27.446", fillcolor="#f1bc95"] ;
124 -> 126 ;
127 [label="x[3] <= 1.144\nsquared_error = 346.631\nsamples = 3\nvalue = 69.101", fillcolor="#efb388"] ;
121 -> 127 ;
128 [label="squared_error = 0.0\nsamples = 1\nvalue = 94.482", fillcolor="#eeae7f"] ;
127 -> 128 ;
129 [label="x[0] <= 0.39\nsquared_error = 36.79\nsamples = 2\nvalue = 56.41", fillcolor="#f0b68c"] ;
127 -> 129 ;
130 [label="squared_error = 0.0\nsamples = 1\nvalue = 62.476", fillcolor="#f0b48a"] ;
129 -> 130 ;
131 [label="squared_error = 0.0\nsamples = 1\nvalue = 50.345", fillcolor="#f0b78e"] ;
129 -> 131 ;
132 [label="x[0] <= 1.136\nsquared_error = 2.7\nsamples = 2\nvalue = 119.235", fillcolor="#eda977"] ;
120 -> 132 ;
133 [label="squared_error = 0.0\nsamples = 1\nvalue = 120.878", fillcolor="#eda877"] ;
132 -> 133 ;
134 [label="squared_error = -0.0\nsamples = 1\nvalue = 117.592", fillcolor="#eda978"] ;
132 -> 134 ;
135 [label="x[3] <= -0.068\nsquared_error = 686.181\nsamples = 10\nvalue = 109.706", fillcolor="#eeab7a"] ;
119 -> 135 ;
136 [label="squared_error = 0.0\nsamples = 1\nvalue = 58.17", fillcolor="#f0b58b"] ;
135 -> 136 ;
137 [label="x[3] <= 0.789\nsquared_error = 434.523\nsamples = 9\nvalue = 115.433", fillcolor="#eda978"] ;
135 -> 137 ;
138 [label="x[1] <= 0.796\nsquared_error = 265.317\nsamples = 7\nvalue = 107.521", fillcolor="#eeab7b"] ;
137 -> 138 ;
139 [label="x[2] <= 0.921\nsquared_error = 203.328\nsamples = 4\nvalue = 98.628", fillcolor="#eead7e"] ;
138 -> 139 ;
140 [label="x[3] <= 0.325\nsquared_error = 40.429\nsamples = 2\nvalue = 85.465", fillcolor="#efb082"] ;
139 -> 140 ;
141 [label="squared_error = 0.0\nsamples = 1\nvalue = 91.824", fillcolor="#eeae80"] ;
140 -> 141 ;
142 [label="squared_error = -0.0\nsamples = 1\nvalue = 79.107", fillcolor="#efb184"] ;
140 -> 142 ;
143 [label="x[2] <= 1.016\nsquared_error = 19.729\nsamples = 2\nvalue = 111.79", fillcolor="#edaa7a"] ;
139 -> 143 ;
144 [label="squared_error = 0.0\nsamples = 1\nvalue = 107.348", fillcolor="#eeab7b"] ;
143 -> 144 ;
145 [label="squared_error = 0.0\nsamples = 1\nvalue = 116.232", fillcolor="#eda978"] ;
143 -> 145 ;
146 [label="x[3] <= 0.39\nsquared_error = 101.895\nsamples = 3\nvalue = 119.379", fillcolor="#eda877"] ;
138 -> 146 ;
147 [label="x[3] <= 0.233\nsquared_error = 1.302\nsamples = 2\nvalue = 126.487", fillcolor="#eda775"] ;
146 -> 147 ;
148 [label="squared_error = 0.0\nsamples = 1\nvalue = 127.628", fillcolor="#eda774"] ;
147 -> 148 ;
149 [label="squared_error = -0.0\nsamples = 1\nvalue = 125.346", fillcolor="#eda775"] ;
147 -> 149 ;
150 [label="squared_error = -0.0\nsamples = 1\nvalue = 105.165", fillcolor="#eeab7c"] ;
146 -> 150 ;
151 [label="x[2] <= 0.379\nsquared_error = 40.931\nsamples = 2\nvalue = 143.123", fillcolor="#eca46f"] ;
137 -> 151 ;
152 [label="squared_error = 0.0\nsamples = 1\nvalue = 149.52", fillcolor="#eca26d"] ;
151 -> 152 ;
153 [label="squared_error = -0.0\nsamples = 1\nvalue = 136.725", fillcolor="#eca571"] ;
151 -> 153 ;
154 [label="x[3] <= 1.095\nsquared_error = 3560.069\nsamples = 3\nvalue = 233.379", fillcolor="#e89152"] ;
96 -> 154 ;
155 [label="x[3] <= 0.405\nsquared_error = 1191.365\nsamples = 2\nvalue = 196.192", fillcolor="#ea985e"] ;
154 -> 155 ;
156 [label="squared_error = 0.0\nsamples = 1\nvalue = 161.675", fillcolor="#eba069"] ;
155 -> 156 ;
157 [label="squared_error = 0.0\nsamples = 1\nvalue = 230.708", fillcolor="#e89152"] ;
155 -> 157 ;
158 [label="squared_error = -0.0\nsamples = 1\nvalue = 307.754", fillcolor="#e58139"] ;
154 -> 158 ;
}